### Intelligent Traffic Management System Implementation

#### Video Processing Module
```java
import org.opencv.core.Core;
import org.opencv.core.Mat;
import org.opencv.core.MatOfRect;
import org.opencv.core.Point;
import org.opencv.core.Rect;
import org.opencv.core.Scalar;
import org.opencv.imgcodecs.Imgcodecs;
import org.opencv.imgproc.Imgproc;
import org.opencv.objdetect.HOGDescriptor;
import org.opencv.videoio.VideoCapture;
import org.opencv.videoio.Videoio;

public class VideoProcessingModule {
    public static void main(String[] args) {
        System.loadLibrary(Core.NATIVE_LIBRARY_NAME);
        VideoCapture capture = new VideoCapture(0);
        Mat frame = new Mat();
        HOGDescriptor hog = new HOGDescriptor();
        hog.setSVMDetector(HOGDescriptor.getDefaultPeopleDetector());

        while (true) {
            capture.read(frame);
            MatOfRect people = new MatOfRect();
            hog.detectMultiScale(frame, people);

            for (Rect rect : people.toArray()) {
                Imgproc.rectangle(frame, new Point(rect.x, rect.y), new Point(rect.x + rect.width, rect.y + rect.height), new Scalar(0, 255, 0), 2);
            }

            Imgcodecs.imwrite("output.jpg", frame);
        }
    }
}
```

#### Traffic Flow Analysis Module
```python
import cv2
import numpy as np
from sklearn.model_selection import train_test_split
from sklearn.ensemble import RandomForestClassifier
from sklearn.metrics import accuracy_score

# Load video frames
frames = []
for i in range(100):
    frame = cv2.imread(f"frame_{i}.jpg")
    frames.append(frame)

# Extract features
features = []
for frame in frames:
    gray = cv2.cvtColor(frame, cv2.COLOR_BGR2GRAY)
    features.append(gray.flatten())

# Train model
X_train, X_test, y_train, y_test = train_test_split(features, [0] * len(features), test_size=0.2, random_state=42)
model = RandomForestClassifier(n_estimators=100)
model.fit(X_train, y_train)

# Predict traffic patterns
predictions = model.predict(X_test)
print("Traffic Pattern Predictions:", predictions)

# Detect congestion
congestion_threshold = 0.5
congestion = np.mean(predictions) > congestion_threshold
print("Congestion Detected:", congestion)
```

#### Decision Making Module
```java
import org.springframework.beans.factory.annotation.Autowired;
import org.springframework.stereotype.Component;

@Component
public class DecisionMakingModule {
    @Autowired
    private VideoProcessingModule videoProcessingModule;

    @Autowired
    private TrafficFlowAnalysisModule trafficFlowAnalysisModule;

    public void makeDecision() {
        // Get video feed from surveillance cameras
        Mat frame = videoProcessingModule.getFrame();

        // Analyze traffic flow
        boolean congestion = trafficFlowAnalysisModule.detectCongestion(frame);

        // Make decision based on traffic flow analysis
        if (congestion) {
            System.out.println("Congestion detected. Implementing traffic management strategy...");
        } else {
            System.out.println("No congestion detected. Continuing with normal traffic flow...");
        }
    }
}
```

#### Integration
```java
import org.springframework.boot.SpringApplication;
import org.springframework.boot.autoconfigure.SpringBootApplication;

@SpringBootApplication
public class IntelligentTrafficManagementSystemApplication {
    public static void main(String[] args) {
        SpringApplication.run(IntelligentTrafficManagementSystemApplication.class, args);
    }
}
```

#### MySQL Database Schema
```sql
CREATE TABLE traffic_data (
    id INT PRIMARY KEY,
    timestamp TIMESTAMP,
    congestion BOOLEAN,
    traffic_pattern VARCHAR(255)
);

CREATE TABLE video_feeds (
    id INT PRIMARY KEY,
    video_feed BLOB,
    timestamp TIMESTAMP
);
```
Note: The above code snippets are simplified examples and may need to be modified to fit the specific requirements of the project. Additionally, the MySQL database schema is a basic example and may need to be expanded to include additional tables and relationships.